{
  "weights": [
    [
      [
        0.05538380107445859,
        1.0757829020988074,
        2.3895304121020597,
        -0.35467453310416597,
        -0.084741557694685,
        -0.08879911090967156,
        -0.34400916415033467,
        0.48859846200656826,
        -0.3824971421039306,
        -0.7662124981442413,
        -0.7509633361310809,
        0.4620440148423361,
        1.1536518973432335,
        -0.9818602657159956,
        -2.562811864688793,
        -0.08752429629956643
      ],
      [
        -0.38278688729437427,
        0.39138350720407183,
        -0.1426696458795697,
        -0.434956384228272,
        -0.2026211490979425,
        -0.49690791818462776,
        -0.1058711666073338,
        -0.14897885290889845,
        -0.10816580168512666,
        0.5799196719928843,
        -0.7516386483025624,
        0.6239955974024247,
        0.3363593769780266,
        -0.5977187927199048,
        0.06687440182649143,
        -0.225053325999737
      ],
      [
        0.037895505989859336,
        0.6025737990764362,
        -0.08476924374027697,
        0.395723788993838,
        -0.2383420506732789,
        -0.8574542538658012,
        -0.032915892872815086,
        -0.1892639906934456,
        -0.5442294720440697,
        0.2960917518552016,
        -0.3830630181640449,
        0.4291218360493123,
        0.13567811247611766,
        -0.18926995368671418,
        -0.005657360555355367,
        -0.03025054935644967
      ],
      [
        -0.4150789413671111,
        -0.9316299642596245,
        0.27085889029921706,
        0.3724456519836893,
        0.7862376316951815,
        0.25932865970496416,
        -0.2245953897475184,
        0.5518194872823746,
        -0.9917658803813368,
        -0.7955098399105072,
        -0.4124163819189542,
        -0.819768448057002,
        -0.44523735491970345,
        -0.10779737244972,
        0.38755522228460637,
        0.15898218589144816
      ],
      [
        -0.6007147198072331,
        0.06897299731474842,
        -0.23922006976347393,
        0.3173464410599065,
        -0.8048646289498397,
        0.1990714776723977,
        0.018758711637328125,
        -0.515246176270089,
        -0.430652171596189,
        0.4525830248383308,
        0.1001778137334128,
        0.5233490087865238,
        0.523126970340516,
        -0.504990463279142,
        -0.09787349197676244,
        -0.9737971434840943
      ],
      [
        0.24315455081084403,
        0.05515083187984848,
        -0.005328739337513961,
        -0.4038443650853422,
        -0.09265778058510209,
        -0.4816079644162372,
        -0.0021895229821110476,
        0.27558558778147624,
        0.35124884011832547,
        -0.0011363418258985801,
        -0.09969484891707718,
        -0.004217309758299255,
        0.02082038209605319,
        -0.03407495816820525,
        -0.011164123594576978,
        0.08220208281870046
      ],
      [
        -0.3840410157962696,
        0.21569872832503456,
        -0.005559025721950637,
        -0.26274477414037717,
        -0.0315624318149899,
        -0.18541063131028648,
        0.07830631717914882,
        0.00543602393813019,
        -0.07445999331063186,
        0.056272503184749245,
        -0.14047010089298206,
        -0.14718832180621252,
        -0.01716394636740451,
        -0.21705703897871328,
        0.05548038221539639,
        -0.04893711510294862
      ],
      [
        0.12224445644194902,
        0.3838934258374057,
        0.06958455358372942,
        0.2529290627026932,
        0.21851107238693865,
        -0.3839718459513839,
        0.14266571707651657,
        0.04056628194733247,
        0.18229260680321735,
        0.04813770441848533,
        -0.5484314622261697,
        -0.20515905514386978,
        0.06820021532273426,
        0.002606862017216521,
        0.08066021634492081,
        -0.02048171120833634
      ]
    ],
    [
      [
        -0.05087888397085837,
        -0.575826295231637,
        -0.04379169516666959,
        0.7104558020711046,
        -0.324257813521597,
        -0.06860453931491446,
        0.23135864773578138,
        -0.3758486179241639
      ],
      [
        -0.499444351614621,
        0.25953662394403926,
        0.3200702898289918,
        0.6648532782222972,
        0.6475252325832818,
        0.5936368744661262,
        -0.6558900567505396,
        0.06530931056983862
      ],
      [
        -1.6444343172976323,
        1.5042218082369219,
        -0.7734694378336111,
        0.3856233457392886,
        -1.956940880618587,
        2.8472091012165213,
        -0.6362111768912079,
        -1.2043239549864813
      ],
      [
        -0.511133089095535,
        -0.29690984123980735,
        0.31661812788005655,
        -0.24904127524813563,
        -0.02256570738179247,
        -0.16126557509461112,
        -0.01208532391113382,
        -0.5446920981603885
      ],
      [
        0.44749559086881263,
        -0.40321079798946735,
        0.5894008489101142,
        -0.22740575810759506,
        0.17630425450180248,
        -0.42935740247061166,
        0.5876990253672677,
        0.594423790363296
      ],
      [
        -0.005648576594121105,
        -0.08324787906553581,
        0.38964480942116086,
        0.13783721230810977,
        0.3911769661218771,
        -0.038188691485963204,
        -0.38256942736300714,
        0.44960247556406324
      ],
      [
        0.7428845318168887,
        -0.498580823672363,
        0.1459336613860012,
        -0.5048329124114972,
        0.2162221315266537,
        0.45220508744806137,
        1.1268086891830194,
        0.9076254988148237
      ],
      [
        0.3659976107863394,
        -0.5100447071315781,
        -0.15107652889523,
        0.4938224983998195,
        0.41098685809061086,
        -0.8115122462963221,
        -0.18164416138788914,
        0.37905549996902066
      ],
      [
        -0.43273666021040436,
        0.3893239488795404,
        -0.44587307225129136,
        0.46243137397481165,
        -0.029973139430972403,
        0.5324662579925565,
        0.05120870400393148,
        -0.44740468391425126
      ],
      [
        -0.29880074393684497,
        1.1711204849160761,
        -0.4068675927624451,
        0.7528688184423166,
        0.16680271075353897,
        0.5733501099717181,
        -0.48403868051441745,
        -0.0166637553627747
      ],
      [
        -0.3576015741431545,
        -0.14256200167133515,
        0.5383601636577336,
        0.028006855658570362,
        0.4160672826956193,
        0.6705898819839644,
        0.28310072464307795,
        -0.35086233420890284
      ],
      [
        -0.18588423408067098,
        0.6220229414455892,
        -0.6282605953641978,
        0.5491609239911309,
        -0.5775440984650332,
        -0.08879161830611916,
        -0.04003174846935749,
        -0.2786711046413527
      ],
      [
        0.6971009266654319,
        0.31536367441498,
        0.5069176593592274,
        -0.6453211311190973,
        -1.6142853321616164,
        1.0563322981626837,
        0.6945321399198461,
        0.813216724512351
      ],
      [
        0.042319848795232005,
        0.8933335784361983,
        -0.39170929923164816,
        0.2574476364749205,
        0.566937374029473,
        0.5837154093169764,
        -0.47528618122054356,
        -0.3709766602738182
      ],
      [
        -0.6325544112996921,
        1.4047593472812656,
        -0.4316946408471664,
        0.6588093870927655,
        -0.19629656447653956,
        2.050137415171361,
        -1.1879861052999983,
        -1.098688769164453
      ],
      [
        0.7365537142097853,
        -0.10537065352043244,
        0.3784796075482071,
        -0.23958728052845396,
        0.145231008511684,
        -0.1230492756699561,
        0.8776880085561957,
        0.9533611652247628
      ]
    ],
    [
      [
        0.9026546919858712,
        0.05678038752888371,
        -0.8245728553151968,
        -2.509916981325205
      ],
      [
        0.30321887057469776,
        -2.548179257211636,
        0.40155994206172274,
        0.6120869113753865
      ],
      [
        -0.0347009014321493,
        0.2523605381993484,
        -1.4272711675599525,
        -0.7424032551387222
      ],
      [
        -0.012646640033412739,
        -0.48038873901186946,
        -1.7858385854504875,
        1.466665821434293
      ],
      [
        0.8521433198395101,
        -1.1263958856132739,
        0.5097598051675698,
        0.39847602166135004
      ],
      [
        -2.489410552619949,
        0.15679771719752753,
        0.5101880515051117,
        0.7744277164952927
      ],
      [
        0.6386946368700877,
        1.2130593203580506,
        0.10403962247939545,
        -2.1947399230877687
      ],
      [
        0.9628078669310715,
        0.04417587906241407,
        -0.39022172949709,
        -2.679323715981688
      ]
    ]
  ],
  "biases": [
    [
      -0.46549748971635196,
      -0.15938008901022546,
      -0.054902740540178074,
      0.04086895903412613,
      0.062434372138473596,
      0.059838994152120274,
      1.6311779701456843,
      0.30721469535547,
      -0.10748735873140867,
      -0.029462327424273026,
      -0.05205160984897982,
      -0.0017448477603963862,
      1.2802824151172638,
      -0.4603872130870648,
      -0.7244016978099727,
      0.722791982835497
    ],
    [
      0.8479936899185203,
      -0.22253083953558034,
      0.3598498947675709,
      -0.5028292967485821,
      0.1870478344983484,
      0.13442967319237317,
      1.0661532190779588,
      1.0989212267734398
    ],
    [
      -0.8334945346813997,
      0.9586740380078504,
      0.6093292701912739,
      0.023573145482910545
    ]
  ],
  "scaler_mean": [
    125.76854809730379,
    87.94605904679366,
    581.4344751764474,
    96.85300679729298,
    5.7481246264036505,
    45.439796413582705,
    25.894550256492774,
    1.50125
  ],
  "scaler_std": [
    65.98684225467429,
    20.828864237104217,
    144.84124016109516,
    1.671311134712993,
    2.546346083837256,
    14.4821571843176,
    3.976362076062357,
    1.1202671277423055
  ],
  "classes": [
    "NORMAL",
    "LOW_RISK",
    "MODERATE_RISK",
    "HIGH_RISK"
  ],
  "accuracy": 0.9233333333333333
}